<NeuralNetwork>
   <Inputs>
      <InputsNumber>6</InputsNumber>
      <Item Index="1">
         <Name></Name>
         <Units></Units>
         <Description></Description>
      </Item>
      <Item Index="2">
         <Name></Name>
         <Units></Units>
         <Description></Description>
      </Item>
      <Item Index="3">
         <Name></Name>
         <Units></Units>
         <Description></Description>
      </Item>
      <Item Index="4">
         <Name></Name>
         <Units></Units>
         <Description></Description>
      </Item>
      <Item Index="5">
         <Name></Name>
         <Units></Units>
         <Description></Description>
      </Item>
      <Item Index="6">
         <Name></Name>
         <Units></Units>
         <Description></Description>
      </Item>
   </Inputs>
   <ScalingLayer>
      <ScalingNeuronsNumber>6</ScalingNeuronsNumber>
      <ScalingNeuron Index="1">
         <Minimum>-5.000000</Minimum>
         <Maximum>0.000000</Maximum>
         <Mean>-2.381818</Mean>
         <StandardDeviation>1.513219</StandardDeviation>
         <ScalingMethod>NoScaling</ScalingMethod>
      </ScalingNeuron>
      <ScalingNeuron Index="2">
         <Minimum>0.530000</Minimum>
         <Maximum>0.600000</Maximum>
         <Mean>0.564136</Mean>
         <StandardDeviation>0.023290</StandardDeviation>
         <ScalingMethod>NoScaling</ScalingMethod>
      </ScalingNeuron>
      <ScalingNeuron Index="3">
         <Minimum>4.340000</Minimum>
         <Maximum>5.140000</Maximum>
         <Mean>4.788636</Mean>
         <StandardDeviation>0.253057</StandardDeviation>
         <ScalingMethod>NoScaling</ScalingMethod>
      </ScalingNeuron>
      <ScalingNeuron Index="4">
         <Minimum>2.810000</Minimum>
         <Maximum>5.350000</Maximum>
         <Mean>3.936818</Mean>
         <StandardDeviation>0.548193</StandardDeviation>
         <ScalingMethod>NoScaling</ScalingMethod>
      </ScalingNeuron>
      <ScalingNeuron Index="5">
         <Minimum>2.730000</Minimum>
         <Maximum>3.640000</Maximum>
         <Mean>3.206818</Mean>
         <StandardDeviation>0.247998</StandardDeviation>
         <ScalingMethod>NoScaling</ScalingMethod>
      </ScalingNeuron>
      <ScalingNeuron Index="6">
         <Minimum>0.125000</Minimum>
         <Maximum>0.450000</Maximum>
         <Mean>0.287500</Mean>
         <StandardDeviation>0.100942</StandardDeviation>
         <ScalingMethod>NoScaling</ScalingMethod>
      </ScalingNeuron>
   </ScalingLayer>
   <MultilayerPerceptron>
      <Architecture>6 30</Architecture>
      <LayersActivationFunction>HyperbolicTangent</LayersActivationFunction>
      <Parameters>0.003928 0.008791 0.009386 0.005987 -0.007561 0.023273 -0.000299 -0.000789 -0.000052 -0.000199 0.000204 -0.000652 0.036750 -0.036640 0.073113 -0.154523 -0.087930 2.049288 0.004002 0.009781 0.011072 0.006053 -0.008032 0.026930 -0.005461 -0.012372 -0.013566 -0.008354 0.011305 -0.034438 0.001224 0.002890 0.002661 0.001079 -0.001803 0.007017 -0.002991 -0.006834 -0.007365 -0.004891 0.006446 -0.019341 0.004238 0.009545 0.009939 0.006065 -0.008739 0.026384 0.004420 0.010272 0.010495 0.006710 -0.009223 0.027504 -0.003471 -0.007206 -0.007712 -0.004777 0.007132 -0.020904 0.004595 0.009554 0.009995 0.006199 -0.009026 0.026908 0.005156 0.011230 0.012333 0.007662 -0.009721 0.030979 -0.001377 -0.002851 -0.002793 -0.001929 0.002667 -0.007711 -0.000939 -0.004339 -0.003506 -0.002497 0.003177 -0.009713 -0.002748 -0.006082 -0.006480 -0.004316 0.005527 -0.016314 0.001234 0.001789 0.002518 0.001265 -0.001632 0.006097 -0.001508 -0.003302 -0.003458 -0.002359 0.003046 -0.009086 0.001952 0.005666 0.004532 0.003799 -0.004920 0.013418 0.002833 0.005680 0.006202 0.004545 -0.005841 0.016279 0.004817 0.010536 0.011574 0.007031 -0.009893 0.029549 -0.001775 -0.003934 -0.003986 -0.002265 0.003310 -0.010534 0.001188 0.002685 0.002676 0.001548 -0.002436 0.007307 0.002604 0.006064 0.006308 0.003794 -0.005701 0.016616 0.000990 0.002330 0.002385 0.001470 -0.001770 0.005923 -0.005379 -0.013148 -0.014517 -0.009022 0.011020 -0.035987 0.001038 0.001989 0.002241 0.001591 -0.001403 0.004727 0.008215 0.018864 0.025872 0.014857 -0.018957 0.061573 0.002902 0.005898 0.006100 0.004184 -0.005726 0.016174 0.002725 0.006119 0.006814 0.004774 -0.006078 0.017808 0.003353 0.007030 0.007771 0.004420 -0.006089 0.019298 0.021377 -0.000776 -2.095396 0.026179 -0.032414 0.007135 -0.017201 0.025043 0.025501 -0.019827 0.025303 0.028135 -0.007234 -0.008645 -0.014529 0.005680 -0.007890 0.011602 0.014219 0.028330 -0.010285 0.007245 0.016969 0.005399 -0.032372 0.003677 0.055722 0.014666 0.015330 0.018930</Parameters>
   </MultilayerPerceptron>
   <MultilayerPerceptron>
      <Architecture>30 1</Architecture>
      <LayersActivationFunction>Linear</LayersActivationFunction>
      <Parameters>0.035555 -0.000414 1.602500 0.042169 -0.053032 0.011043 -0.028959 0.040659 0.042267 -0.032341 0.041260 0.047468 -0.011803 -0.014265 -0.024195 0.009615 -0.013421 0.020161 0.025464 0.045785 -0.016179 0.011258 0.025868 0.009004 -0.054277 0.007216 0.095246 0.024530 0.026208 0.030045 0.613108</Parameters>
   </MultilayerPerceptron>
   <UnscalingLayer>
      <UnscalingNeuronsNumber>1</UnscalingNeuronsNumber>
      <Descriptives Index="1">
         <Minimum>0.01</Minimum>
         <Maximum>62.42</Maximum>
         <Mean>10.4954</Mean>
         <StandardDeviation>15.1605</StandardDeviation>
      </Descriptives>
      <UnscalingMethod>MinimumMaximum</UnscalingMethod>
   </UnscalingLayer>
   <BoundingLayer>
      <BoundingNeuronsNumber>1</BoundingNeuronsNumber>
      <Item Index="1">
         <LowerBound>-1.79769e+308</LowerBound>
         <UpperBound>1.79769e+308</UpperBound>
      </Item>
      <UseBoundingLayer>1</UseBoundingLayer>
   </BoundingLayer>
</NeuralNetwork>
